<?xml version="1.0"?>
<opencv_storage>
<cascade>
  <stageType>BOOST</stageType>
  <featureType>HAAR</featureType>
  <height>24</height>
  <width>36</width>
  <stageParams>
    <boostType>GAB</boostType>
    <minHitRate>9.9500000476837158e-01</minHitRate>
    <maxFalseAlarm>5.0000000000000000e-01</maxFalseAlarm>
    <weightTrimRate>9.4999998807907104e-01</weightTrimRate>
    <maxDepth>1</maxDepth>
    <maxWeakCount>100</maxWeakCount></stageParams>
  <featureParams>
    <maxCatCount>0</maxCatCount>
    <featSize>1</featSize>
    <mode>BASIC</mode></featureParams>
  <stageNum>12</stageNum>
  <stages>
    <!-- stage 0 -->
    <_>
      <maxWeakCount>4</maxWeakCount>
      <stageThreshold>-2.0638256072998047e+00</stageThreshold>
      <weakClassifiers>
        <_>
          <internalNodes>
            0 -1 9 -3.8611471652984619e-01</internalNodes>
          <leafValues>
            8.3783781528472900e-01 -9.5012468099594116e-01</leafValues></_>
        <_>
          <internalNodes>
            0 -1 38 6.6144578158855438e-02</internalNodes>
          <leafValues>
            -8.9021635055541992e-01 5.0410902500152588e-01</leafValues></_>
        <_>
          <internalNodes>
            0 -1 19 -1.0678610205650330e-01</internalNodes>
          <leafValues>
            4.3984794616699219e-01 -8.6840438842773438e-01</leafValues></_>
        <_>
          <internalNodes>
            0 -1 44 6.4616883173584938e-04</internalNodes>
          <leafValues>
            -5.9975779056549072e-01 6.4491987228393555e-01</leafValues></_></weakClassifiers></_>
    <!-- stage 1 -->
    <_>
      <maxWeakCount>3</maxWeakCount>
      <stageThreshold>-1.2979106903076172e+00</stageThreshold>
      <weakClassifiers>
        <_>
          <internalNodes>
            0 -1 12 -3.4624072909355164e-01</internalNodes>
          <leafValues>
            3.3783784508705139e-01 -9.3986928462982178e-01</leafValues></_>
        <_>
          <internalNodes>
            0 -1 55 -9.1361464001238346e-04</internalNodes>
          <leafValues>
            5.3567814826965332e-01 -6.7665588855743408e-01</leafValues></_>
        <_>
          <internalNodes>
            0 -1 53 8.7695708498358727e-03</internalNodes>
          <leafValues>
            -8.9371955394744873e-01 3.3196994662284851e-01</leafValues></_></weakClassifiers></_>
    <!-- stage 2 -->
    <_>
      <maxWeakCount>5</maxWeakCount>
      <stageThreshold>-1.5992594957351685e+00</stageThreshold>
      <weakClassifiers>
        <_>
          <internalNodes>
            0 -1 11 -5.0977826118469238e-01</internalNodes>
          <leafValues>
            5.2631580829620361e-01 -8.4707289934158325e-01</leafValues></_>
        <_>
          <internalNodes>
            0 -1 29 -1.7307147383689880e-01</internalNodes>
          <leafValues>
            5.2980035543441772e-01 -7.6357519626617432e-01</leafValues></_>
        <_>
          <internalNodes>
            0 -1 14 -2.1368633955717087e-02</internalNodes>
          <leafValues>
            2.3659832775592804e-01 -9.5370107889175415e-01</leafValues></_>
        <_>
          <internalNodes>
            0 -1 35 6.9603443145751953e-02</internalNodes>
          <leafValues>
            -5.8210486173629761e-01 4.9611139297485352e-01</leafValues></_>
        <_>
          <internalNodes>
            0 -1 54 -8.9067616499960423e-04</internalNodes>
          <leafValues>
            -9.0674817562103271e-01 3.5689511895179749e-01</leafValues></_></weakClassifiers></_>
    <!-- stage 3 -->
    <_>
      <maxWeakCount>6</maxWeakCount>
      <stageThreshold>-1.4238841533660889e+00</stageThreshold>
      <weakClassifiers>
        <_>
          <internalNodes>
            0 -1 22 -1.0266835987567902e-01</internalNodes>
          <leafValues>
            8.0000001192092896e-01 -8.0297821760177612e-01</leafValues></_>
        <_>
          <internalNodes>
            0 -1 24 -4.1727572679519653e-01</internalNodes>
          <leafValues>
            4.7518661618232727e-01 -6.9825869798660278e-01</leafValues></_>
        <_>
          <internalNodes>
            0 -1 36 2.5819307193160057e-03</internalNodes>
          <leafValues>
            2.8712093830108643e-01 -9.1363739967346191e-01</leafValues></_>
        <_>
          <internalNodes>
            0 -1 37 1.4850226044654846e-01</internalNodes>
          <leafValues>
            -7.2831517457962036e-01 4.3680047988891602e-01</leafValues></_>
        <_>
          <internalNodes>
            0 -1 4 -4.6440903679467738e-04</internalNodes>
          <leafValues>
            -8.8040220737457275e-01 2.9376882314682007e-01</leafValues></_>
        <_>
          <internalNodes>
            0 -1 59 2.8508735704235733e-04</internalNodes>
          <leafValues>
            2.6042085886001587e-01 -8.8729518651962280e-01</leafValues></_></weakClassifiers></_>
    <!-- stage 4 -->
    <_>
      <maxWeakCount>5</maxWeakCount>
      <stageThreshold>-2.0129759311676025e+00</stageThreshold>
      <weakClassifiers>
        <_>
          <internalNodes>
            0 -1 13 -5.3163027763366699e-01</internalNodes>
          <leafValues>
            8.3333331346511841e-01 -7.9703533649444580e-01</leafValues></_>
        <_>
          <internalNodes>
            0 -1 48 5.2196497563272715e-04</internalNodes>
          <leafValues>
            1.0784503817558289e-01 -8.8271057605743408e-01</leafValues></_>
        <_>
          <internalNodes>
            0 -1 1 1.9757945556193590e-03</internalNodes>
          <leafValues>
            2.7735084295272827e-01 -7.8480428457260132e-01</leafValues></_>
        <_>
          <internalNodes>
            0 -1 28 2.9923929105279967e-05</internalNodes>
          <leafValues>
            2.5795793533325195e-01 -9.4678992033004761e-01</leafValues></_>
        <_>
          <internalNodes>
            0 -1 61 -1.1990018538199365e-04</internalNodes>
          <leafValues>
            -9.5463883876800537e-01 1.9361636042594910e-01</leafValues></_></weakClassifiers></_>
    <!-- stage 5 -->
    <_>
      <maxWeakCount>5</maxWeakCount>
      <stageThreshold>-1.5723693370819092e+00</stageThreshold>
      <weakClassifiers>
        <_>
          <internalNodes>
            0 -1 39 -5.2324793068692088e-04</internalNodes>
          <leafValues>
            2.5714287161827087e-01 -8.1494659185409546e-01</leafValues></_>
        <_>
          <internalNodes>
            0 -1 49 8.1332951784133911e-02</internalNodes>
          <leafValues>
            -8.0566823482513428e-01 2.4286913871765137e-01</leafValues></_>
        <_>
          <internalNodes>
            0 -1 42 1.1871084570884705e-02</internalNodes>
          <leafValues>
            -5.5874788761138916e-01 4.3465369939804077e-01</leafValues></_>
        <_>
          <internalNodes>
            0 -1 63 6.2300299759954214e-05</internalNodes>
          <leafValues>
            2.5260424613952637e-01 -8.6805683374404907e-01</leafValues></_>
        <_>
          <internalNodes>
            0 -1 40 -5.1707714796066284e-02</internalNodes>
          <leafValues>
            4.2651289701461792e-01 -5.7269632816314697e-01</leafValues></_></weakClassifiers></_>
    <!-- stage 6 -->
    <_>
      <maxWeakCount>5</maxWeakCount>
      <stageThreshold>-1.4748698472976685e+00</stageThreshold>
      <weakClassifiers>
        <_>
          <internalNodes>
            0 -1 32 -4.8229660023935139e-04</internalNodes>
          <leafValues>
            2.5000000000000000e-01 -8.1688463687896729e-01</leafValues></_>
        <_>
          <internalNodes>
            0 -1 8 -1.1475087702274323e-01</internalNodes>
          <leafValues>
            2.0538212358951569e-01 -7.9996687173843384e-01</leafValues></_>
        <_>
          <internalNodes>
            0 -1 16 -5.4010981693863869e-04</internalNodes>
          <leafValues>
            -9.1442513465881348e-01 1.9096742570400238e-01</leafValues></_>
        <_>
          <internalNodes>
            0 -1 47 -3.4345948370173573e-04</internalNodes>
          <leafValues>
            8.2252383232116699e-01 -3.1875380873680115e-01</leafValues></_>
        <_>
          <internalNodes>
            0 -1 64 2.3755757865728810e-05</internalNodes>
          <leafValues>
            3.0827599763870239e-01 -9.3648248910903931e-01</leafValues></_></weakClassifiers></_>
    <!-- stage 7 -->
    <_>
      <maxWeakCount>6</maxWeakCount>
      <stageThreshold>-1.5230252742767334e+00</stageThreshold>
      <weakClassifiers>
        <_>
          <internalNodes>
            0 -1 10 -2.0431563258171082e-01</internalNodes>
          <leafValues>
            -9.6385538578033447e-02 -8.7416332960128784e-01</leafValues></_>
        <_>
          <internalNodes>
            0 -1 50 -2.8473150450736284e-04</internalNodes>
          <leafValues>
            5.3027778863906860e-01 -5.2352607250213623e-01</leafValues></_>
        <_>
          <internalNodes>
            0 -1 7 -9.0876132249832153e-02</internalNodes>
          <leafValues>
            3.3004307746887207e-01 -6.8346351385116577e-01</leafValues></_>
        <_>
          <internalNodes>
            0 -1 18 4.5912232599221170e-04</internalNodes>
          <leafValues>
            2.9917690157890320e-01 -6.8939667940139771e-01</leafValues></_>
        <_>
          <internalNodes>
            0 -1 2 -6.8571888841688633e-03</internalNodes>
          <leafValues>
            -9.1531074047088623e-01 2.3567178845405579e-01</leafValues></_>
        <_>
          <internalNodes>
            0 -1 31 2.0949933677911758e-03</internalNodes>
          <leafValues>
            1.6075484454631805e-01 -1.</leafValues></_></weakClassifiers></_>
    <!-- stage 8 -->
    <_>
      <maxWeakCount>7</maxWeakCount>
      <stageThreshold>-1.9963109493255615e+00</stageThreshold>
      <weakClassifiers>
        <_>
          <internalNodes>
            0 -1 23 -5.1363117992877960e-02</internalNodes>
          <leafValues>
            3.3333334326744080e-01 -8.0373829603195190e-01</leafValues></_>
        <_>
          <internalNodes>
            0 -1 41 1.3941081124357879e-04</internalNodes>
          <leafValues>
            -5.3889697790145874e-01 3.1614613533020020e-01</leafValues></_>
        <_>
          <internalNodes>
            0 -1 62 -7.2195287793874741e-04</internalNodes>
          <leafValues>
            -7.8367888927459717e-01 2.3689465224742889e-01</leafValues></_>
        <_>
          <internalNodes>
            0 -1 0 2.7492339722812176e-03</internalNodes>
          <leafValues>
            1.6732947528362274e-01 -9.4187647104263306e-01</leafValues></_>
        <_>
          <internalNodes>
            0 -1 3 -2.4513257667422295e-03</internalNodes>
          <leafValues>
            -7.8327953815460205e-01 2.0501896739006042e-01</leafValues></_>
        <_>
          <internalNodes>
            0 -1 46 -1.9955185055732727e-01</internalNodes>
          <leafValues>
            3.9321506023406982e-01 -4.9257093667984009e-01</leafValues></_>
        <_>
          <internalNodes>
            0 -1 60 -7.5347503297962248e-05</internalNodes>
          <leafValues>
            -8.9241755008697510e-01 2.1795071661472321e-01</leafValues></_></weakClassifiers></_>
    <!-- stage 9 -->
    <_>
      <maxWeakCount>6</maxWeakCount>
      <stageThreshold>-1.6559997797012329e+00</stageThreshold>
      <weakClassifiers>
        <_>
          <internalNodes>
            0 -1 30 -9.0673238039016724e-02</internalNodes>
          <leafValues>
            3.6000001430511475e-01 -7.9606026411056519e-01</leafValues></_>
        <_>
          <internalNodes>
            0 -1 5 -2.9346972703933716e-01</internalNodes>
          <leafValues>
            1.5793122351169586e-01 -7.1801292896270752e-01</leafValues></_>
        <_>
          <internalNodes>
            0 -1 52 4.1620916454121470e-04</internalNodes>
          <leafValues>
            -3.1444776058197021e-01 6.7135131359100342e-01</leafValues></_>
        <_>
          <internalNodes>
            0 -1 20 7.9062785953283310e-03</internalNodes>
          <leafValues>
            -5.8216810226440430e-01 3.5033237934112549e-01</leafValues></_>
        <_>
          <internalNodes>
            0 -1 26 -3.6053829826414585e-03</internalNodes>
          <leafValues>
            6.1509394645690918e-01 -3.1554648280143738e-01</leafValues></_>
        <_>
          <internalNodes>
            0 -1 60 4.3787210597656667e-04</internalNodes>
          <leafValues>
            2.7662864327430725e-01 -7.9150748252868652e-01</leafValues></_></weakClassifiers></_>
    <!-- stage 10 -->
    <_>
      <maxWeakCount>8</maxWeakCount>
      <stageThreshold>-1.8963780403137207e+00</stageThreshold>
      <weakClassifiers>
        <_>
          <internalNodes>
            0 -1 58 4.1840792982839048e-04</internalNodes>
          <leafValues>
            -8.1372547149658203e-01 -5.1546391099691391e-02</leafValues></_>
        <_>
          <internalNodes>
            0 -1 6 -4.7479331493377686e-01</internalNodes>
          <leafValues>
            1.2912663817405701e-01 -6.9987034797668457e-01</leafValues></_>
        <_>
          <internalNodes>
            0 -1 21 -1.5340846963226795e-02</internalNodes>
          <leafValues>
            2.4252544343471527e-01 -6.0650902986526489e-01</leafValues></_>
        <_>
          <internalNodes>
            0 -1 33 2.6045672129839659e-03</internalNodes>
          <leafValues>
            2.1269564330577850e-01 -9.0019190311431885e-01</leafValues></_>
        <_>
          <internalNodes>
            0 -1 45 1.5189236728474498e-04</internalNodes>
          <leafValues>
            -3.4542384743690491e-01 4.5748066902160645e-01</leafValues></_>
        <_>
          <internalNodes>
            0 -1 15 1.8336482753511518e-04</internalNodes>
          <leafValues>
            1.5755377709865570e-01 -9.1140663623809814e-01</leafValues></_>
        <_>
          <internalNodes>
            0 -1 51 -9.8051899112761021e-04</internalNodes>
          <leafValues>
            6.5090906620025635e-01 -2.6182025671005249e-01</leafValues></_>
        <_>
          <internalNodes>
            0 -1 57 5.0113856559619308e-04</internalNodes>
          <leafValues>
            -3.8831299543380737e-01 4.2923977971076965e-01</leafValues></_></weakClassifiers></_>
    <!-- stage 11 -->
    <_>
      <maxWeakCount>8</maxWeakCount>
      <stageThreshold>-1.8367218971252441e+00</stageThreshold>
      <weakClassifiers>
        <_>
          <internalNodes>
            0 -1 27 4.5895330607891083e-02</internalNodes>
          <leafValues>
            -7.9833924770355225e-01 5.7142857462167740e-02</leafValues></_>
        <_>
          <internalNodes>
            0 -1 49 1.0315150767564774e-01</internalNodes>
          <leafValues>
            -5.9809476137161255e-01 1.7107355594635010e-01</leafValues></_>
        <_>
          <internalNodes>
            0 -1 34 2.1893051452934742e-03</internalNodes>
          <leafValues>
            -2.6612582802772522e-01 6.1156791448593140e-01</leafValues></_>
        <_>
          <internalNodes>
            0 -1 65 -9.0716761769726872e-04</internalNodes>
          <leafValues>
            -7.9977452754974365e-01 1.9373962283134460e-01</leafValues></_>
        <_>
          <internalNodes>
            0 -1 43 -5.2376458188518882e-04</internalNodes>
          <leafValues>
            7.7119600772857666e-01 -1.9311301410198212e-01</leafValues></_>
        <_>
          <internalNodes>
            0 -1 17 -3.0936871189624071e-03</internalNodes>
          <leafValues>
            2.5516602396965027e-01 -6.9163012504577637e-01</leafValues></_>
        <_>
          <internalNodes>
            0 -1 56 2.0840263459831476e-03</internalNodes>
          <leafValues>
            -6.0050272941589355e-01 2.4788403511047363e-01</leafValues></_>
        <_>
          <internalNodes>
            0 -1 25 -1.4061640831641853e-04</internalNodes>
          <leafValues>
            -7.9928249120712280e-01 1.7054803669452667e-01</leafValues></_></weakClassifiers></_></stages>
  <features>
    <_>
      <rects>
        <_>
          0 0 24 1 -1.</_>
        <_>
          8 0 8 1 3.</_></rects>
      <tilted>0</tilted></_>
    <_>
      <rects>
        <_>
          0 0 30 1 -1.</_>
        <_>
          10 0 10 1 3.</_></rects>
      <tilted>0</tilted></_>
    <_>
      <rects>
        <_>
          0 0 30 1 -1.</_>
        <_>
          15 0 15 1 2.</_></rects>
      <tilted>0</tilted></_>
    <_>
      <rects>
        <_>
          0 1 1 12 -1.</_>
        <_>
          0 7 1 6 2.</_></rects>
      <tilted>0</tilted></_>
    <_>
      <rects>
        <_>
          0 2 1 9 -1.</_>
        <_>
          0 5 1 3 3.</_></rects>
      <tilted>0</tilted></_>
    <_>
      <rects>
        <_>
          0 2 36 14 -1.</_>
        <_>
          12 2 12 14 3.</_></rects>
      <tilted>0</tilted></_>
    <_>
      <rects>
        <_>
          0 3 36 20 -1.</_>
        <_>
          12 3 12 20 3.</_></rects>
      <tilted>0</tilted></_>
    <_>
      <rects>
        <_>
          0 4 16 15 -1.</_>
        <_>
          8 4 8 15 2.</_></rects>
      <tilted>0</tilted></_>
    <_>
      <rects>
        <_>
          0 4 18 13 -1.</_>
        <_>
          9 4 9 13 2.</_></rects>
      <tilted>0</tilted></_>
    <_>
      <rects>
        <_>
          0 6 36 15 -1.</_>
        <_>
          12 6 12 15 3.</_></rects>
      <tilted>0</tilted></_>
    <_>
      <rects>
        <_>
          0 7 20 12 -1.</_>
        <_>
          10 7 10 12 2.</_></rects>
      <tilted>0</tilted></_>
    <_>
      <rects>
        <_>
          0 7 36 12 -1.</_>
        <_>
          12 7 12 12 3.</_></rects>
      <tilted>0</tilted></_>
    <_>
      <rects>
        <_>
          0 8 36 12 -1.</_>
        <_>
          12 8 12 12 3.</_></rects>
      <tilted>0</tilted></_>
    <_>
      <rects>
        <_>
          0 9 36 10 -1.</_>
        <_>
          12 9 12 10 3.</_></rects>
      <tilted>0</tilted></_>
    <_>
      <rects>
        <_>
          0 13 20 11 -1.</_>
        <_>
          10 13 10 11 2.</_></rects>
      <tilted>0</tilted></_>
    <_>
      <rects>
        <_>
          0 20 3 4 -1.</_>
        <_>
          1 20 1 4 3.</_></rects>
      <tilted>0</tilted></_>
    <_>
      <rects>
        <_>
          0 22 9 2 -1.</_>
        <_>
          3 22 3 2 3.</_></rects>
      <tilted>0</tilted></_>
    <_>
      <rects>
        <_>
          1 0 8 22 -1.</_>
        <_>
          5 0 4 22 2.</_></rects>
      <tilted>0</tilted></_>
    <_>
      <rects>
        <_>
          1 21 9 3 -1.</_>
        <_>
          4 21 3 3 3.</_></rects>
      <tilted>0</tilted></_>
    <_>
      <rects>
        <_>
          2 5 33 12 -1.</_>
        <_>
          13 5 11 12 3.</_></rects>
      <tilted>0</tilted></_>
    <_>
      <rects>
        <_>
          2 18 19 6 -1.</_>
        <_>
          2 21 19 3 2.</_></rects>
      <tilted>0</tilted></_>
    <_>
      <rects>
        <_>
          3 0 10 12 -1.</_>
        <_>
          3 6 10 6 2.</_></rects>
      <tilted>0</tilted></_>
    <_>
      <rects>
        <_>
          3 17 30 2 -1.</_>
        <_>
          13 17 10 2 3.</_></rects>
      <tilted>0</tilted></_>
    <_>
      <rects>
        <_>
          3 18 30 1 -1.</_>
        <_>
          13 18 10 1 3.</_></rects>
      <tilted>0</tilted></_>
    <_>
      <rects>
        <_>
          4 0 32 24 -1.</_>
        <_>
          4 8 32 8 3.</_></rects>
      <tilted>0</tilted></_>
    <_>
      <rects>
        <_>
          4 1 9 1 -1.</_>
        <_>
          7 1 3 1 3.</_></rects>
      <tilted>0</tilted></_>
    <_>
      <rects>
        <_>
          4 11 10 3 -1.</_>
        <_>
          4 12 10 1 3.</_></rects>
      <tilted>0</tilted></_>
    <_>
      <rects>
        <_>
          4 18 18 6 -1.</_>
        <_>
          4 18 9 3 2.</_>
        <_>
          13 21 9 3 2.</_></rects>
      <tilted>0</tilted></_>
    <_>
      <rects>
        <_>
          4 23 3 1 -1.</_>
        <_>
          5 23 1 1 3.</_></rects>
      <tilted>0</tilted></_>
    <_>
      <rects>
        <_>
          5 0 27 12 -1.</_>
        <_>
          5 6 27 6 2.</_></rects>
      <tilted>0</tilted></_>
    <_>
      <rects>
        <_>
          5 18 27 2 -1.</_>
        <_>
          14 18 9 2 3.</_></rects>
      <tilted>0</tilted></_>
    <_>
      <rects>
        <_>
          9 0 16 1 -1.</_>
        <_>
          17 0 8 1 2.</_></rects>
      <tilted>0</tilted></_>
    <_>
      <rects>
        <_>
          9 8 2 2 -1.</_>
        <_>
          9 8 1 1 2.</_>
        <_>
          10 9 1 1 2.</_></rects>
      <tilted>0</tilted></_>
    <_>
      <rects>
        <_>
          9 23 18 1 -1.</_>
        <_>
          18 23 9 1 2.</_></rects>
      <tilted>0</tilted></_>
    <_>
      <rects>
        <_>
          10 7 4 3 -1.</_>
        <_>
          10 8 4 1 3.</_></rects>
      <tilted>0</tilted></_>
    <_>
      <rects>
        <_>
          10 14 23 10 -1.</_>
        <_>
          10 19 23 5 2.</_></rects>
      <tilted>0</tilted></_>
    <_>
      <rects>
        <_>
          11 0 22 1 -1.</_>
        <_>
          22 0 11 1 2.</_></rects>
      <tilted>0</tilted></_>
    <_>
      <rects>
        <_>
          12 8 24 16 -1.</_>
        <_>
          24 8 12 16 2.</_></rects>
      <tilted>0</tilted></_>
    <_>
      <rects>
        <_>
          12 10 15 14 -1.</_>
        <_>
          12 17 15 7 2.</_></rects>
      <tilted>0</tilted></_>
    <_>
      <rects>
        <_>
          12 12 2 2 -1.</_>
        <_>
          12 12 1 1 2.</_>
        <_>
          13 13 1 1 2.</_></rects>
      <tilted>0</tilted></_>
    <_>
      <rects>
        <_>
          13 0 9 10 -1.</_>
        <_>
          13 5 9 5 2.</_></rects>
      <tilted>0</tilted></_>
    <_>
      <rects>
        <_>
          14 10 2 2 -1.</_>
        <_>
          14 10 1 1 2.</_>
        <_>
          15 11 1 1 2.</_></rects>
      <tilted>0</tilted></_>
    <_>
      <rects>
        <_>
          14 14 2 10 -1.</_>
        <_>
          14 19 2 5 2.</_></rects>
      <tilted>0</tilted></_>
    <_>
      <rects>
        <_>
          15 5 2 2 -1.</_>
        <_>
          15 5 1 1 2.</_>
        <_>
          16 6 1 1 2.</_></rects>
      <tilted>0</tilted></_>
    <_>
      <rects>
        <_>
          17 10 2 4 -1.</_>
        <_>
          17 10 1 2 2.</_>
        <_>
          18 12 1 2 2.</_></rects>
      <tilted>0</tilted></_>
    <_>
      <rects>
        <_>
          17 12 2 2 -1.</_>
        <_>
          17 12 1 1 2.</_>
        <_>
          18 13 1 1 2.</_></rects>
      <tilted>0</tilted></_>
    <_>
      <rects>
        <_>
          18 0 16 24 -1.</_>
        <_>
          18 8 16 8 3.</_></rects>
      <tilted>0</tilted></_>
    <_>
      <rects>
        <_>
          18 11 2 2 -1.</_>
        <_>
          18 11 1 1 2.</_>
        <_>
          19 12 1 1 2.</_></rects>
      <tilted>0</tilted></_>
    <_>
      <rects>
        <_>
          20 0 15 1 -1.</_>
        <_>
          25 0 5 1 3.</_></rects>
      <tilted>0</tilted></_>
    <_>
      <rects>
        <_>
          20 6 16 10 -1.</_>
        <_>
          28 6 8 10 2.</_></rects>
      <tilted>0</tilted></_>
    <_>
      <rects>
        <_>
          20 13 2 2 -1.</_>
        <_>
          20 13 1 1 2.</_>
        <_>
          21 14 1 1 2.</_></rects>
      <tilted>0</tilted></_>
    <_>
      <rects>
        <_>
          21 7 4 2 -1.</_>
        <_>
          21 7 2 1 2.</_>
        <_>
          23 8 2 1 2.</_></rects>
      <tilted>0</tilted></_>
    <_>
      <rects>
        <_>
          21 10 2 2 -1.</_>
        <_>
          21 10 1 1 2.</_>
        <_>
          22 11 1 1 2.</_></rects>
      <tilted>0</tilted></_>
    <_>
      <rects>
        <_>
          22 0 14 14 -1.</_>
        <_>
          22 0 7 7 2.</_>
        <_>
          29 7 7 7 2.</_></rects>
      <tilted>0</tilted></_>
    <_>
      <rects>
        <_>
          22 3 12 1 -1.</_>
        <_>
          28 3 6 1 2.</_></rects>
      <tilted>0</tilted></_>
    <_>
      <rects>
        <_>
          22 7 4 2 -1.</_>
        <_>
          22 7 2 1 2.</_>
        <_>
          24 8 2 1 2.</_></rects>
      <tilted>0</tilted></_>
    <_>
      <rects>
        <_>
          22 15 11 6 -1.</_>
        <_>
          22 18 11 3 2.</_></rects>
      <tilted>0</tilted></_>
    <_>
      <rects>
        <_>
          22 16 2 6 -1.</_>
        <_>
          23 16 1 6 2.</_></rects>
      <tilted>0</tilted></_>
    <_>
      <rects>
        <_>
          25 7 2 2 -1.</_>
        <_>
          25 7 1 1 2.</_>
        <_>
          26 8 1 1 2.</_></rects>
      <tilted>0</tilted></_>
    <_>
      <rects>
        <_>
          27 0 8 1 -1.</_>
        <_>
          31 0 4 1 2.</_></rects>
      <tilted>0</tilted></_>
    <_>
      <rects>
        <_>
          30 23 6 1 -1.</_>
        <_>
          32 23 2 1 3.</_></rects>
      <tilted>0</tilted></_>
    <_>
      <rects>
        <_>
          31 0 5 3 -1.</_>
        <_>
          31 1 5 1 3.</_></rects>
      <tilted>0</tilted></_>
    <_>
      <rects>
        <_>
          32 0 4 24 -1.</_>
        <_>
          34 0 2 24 2.</_></rects>
      <tilted>0</tilted></_>
    <_>
      <rects>
        <_>
          33 0 1 3 -1.</_>
        <_>
          33 1 1 1 3.</_></rects>
      <tilted>0</tilted></_>
    <_>
      <rects>
        <_>
          34 1 2 1 -1.</_>
        <_>
          35 1 1 1 2.</_></rects>
      <tilted>0</tilted></_>
    <_>
      <rects>
        <_>
          35 5 1 8 -1.</_>
        <_>
          35 9 1 4 2.</_></rects>
      <tilted>0</tilted></_></features></cascade>
</opencv_storage>
